digraph Tree {
node [shape=box, fontname="helvetica"] ;
edge [fontname="helvetica"] ;
0 [label="TS% <= 0.535\nsquared_error = 158.374\nsamples = 881\nvalue = 40.839"] ;
1 [label="OeFG% <= 0.497\nsquared_error = 127.158\nsamples = 404\nvalue = 34.087"] ;
0 -> 1 [labeldistance=2.5, labelangle=45, headlabel="True"] ;
2 [label="TS% <= 0.505\nsquared_error = 91.741\nsamples = 232\nvalue = 39.487"] ;
1 -> 2 ;
3 [label="OFT/FGA <= 0.236\nsquared_error = 68.751\nsamples = 29\nvalue = 27.276"] ;
2 -> 3 ;
4 [label="squared_error = 71.421\nsamples = 11\nvalue = 33.182"] ;
3 -> 4 ;
5 [label="squared_error = 32.778\nsamples = 18\nvalue = 23.667"] ;
3 -> 5 ;
6 [label="OeFG% <= 0.465\nsquared_error = 70.68\nsamples = 203\nvalue = 41.232"] ;
2 -> 6 ;
7 [label="OFT/FGA <= 0.222\nsquared_error = 32.951\nsamples = 39\nvalue = 50.154"] ;
6 -> 7 ;
8 [label="squared_error = 24.095\nsamples = 13\nvalue = 53.462"] ;
7 -> 8 ;
9 [label="Age <= 27.8\nsquared_error = 29.173\nsamples = 26\nvalue = 48.5"] ;
7 -> 9 ;
10 [label="squared_error = 11.289\nsamples = 11\nvalue = 45.273"] ;
9 -> 10 ;
11 [label="squared_error = 29.049\nsamples = 15\nvalue = 50.867"] ;
9 -> 11 ;
12 [label="Age <= 27.55\nsquared_error = 56.22\nsamples = 164\nvalue = 39.11"] ;
6 -> 12 ;
13 [label="TS% <= 0.528\nsquared_error = 50.444\nsamples = 122\nvalue = 37.361"] ;
12 -> 13 ;
14 [label="OTOV% <= 13.85\nsquared_error = 46.976\nsamples = 88\nvalue = 35.466"] ;
13 -> 14 ;
15 [label="DRB% <= 71.35\nsquared_error = 34.661\nsamples = 35\nvalue = 31.286"] ;
14 -> 15 ;
16 [label="OeFG% <= 0.486\nsquared_error = 27.93\nsamples = 25\nvalue = 29.52"] ;
15 -> 16 ;
17 [label="squared_error = 20.782\nsamples = 15\nvalue = 32.133"] ;
16 -> 17 ;
18 [label="squared_error = 13.04\nsamples = 10\nvalue = 25.6"] ;
16 -> 18 ;
19 [label="squared_error = 24.21\nsamples = 10\nvalue = 35.7"] ;
15 -> 19 ;
20 [label="OeFG% <= 0.491\nsquared_error = 35.949\nsamples = 53\nvalue = 38.226"] ;
14 -> 20 ;
21 [label="eFG% <= 0.477\nsquared_error = 31.682\nsamples = 39\nvalue = 39.897"] ;
20 -> 21 ;
22 [label="ORB% <= 30.25\nsquared_error = 26.616\nsamples = 29\nvalue = 38.069"] ;
21 -> 22 ;
23 [label="squared_error = 37.24\nsamples = 10\nvalue = 35.4"] ;
22 -> 23 ;
24 [label="squared_error = 15.302\nsamples = 19\nvalue = 39.474"] ;
22 -> 24 ;
25 [label="squared_error = 8.56\nsamples = 10\nvalue = 45.2"] ;
21 -> 25 ;
26 [label="squared_error = 18.388\nsamples = 14\nvalue = 33.571"] ;
20 -> 26 ;
27 [label="FT/FGA <= 0.245\nsquared_error = 26.077\nsamples = 34\nvalue = 42.265"] ;
13 -> 27 ;
28 [label="OeFG% <= 0.484\nsquared_error = 15.823\nsamples = 21\nvalue = 44.714"] ;
27 -> 28 ;
29 [label="squared_error = 12.8\nsamples = 10\nvalue = 47.0"] ;
28 -> 29 ;
30 [label="squared_error = 9.504\nsamples = 11\nvalue = 42.636"] ;
28 -> 30 ;
31 [label="squared_error = 17.29\nsamples = 13\nvalue = 38.308"] ;
27 -> 31 ;
32 [label="TS% <= 0.522\nsquared_error = 38.297\nsamples = 42\nvalue = 44.19"] ;
12 -> 32 ;
33 [label="ORB% <= 29.75\nsquared_error = 35.588\nsamples = 20\nvalue = 41.25"] ;
32 -> 33 ;
34 [label="squared_error = 32.6\nsamples = 10\nvalue = 39.0"] ;
33 -> 34 ;
35 [label="squared_error = 28.45\nsamples = 10\nvalue = 43.5"] ;
33 -> 35 ;
36 [label="OeFG% <= 0.484\nsquared_error = 25.754\nsamples = 22\nvalue = 46.864"] ;
32 -> 36 ;
37 [label="squared_error = 17.24\nsamples = 11\nvalue = 49.182"] ;
36 -> 37 ;
38 [label="squared_error = 23.521\nsamples = 11\nvalue = 44.545"] ;
36 -> 38 ;
39 [label="TS% <= 0.519\nsquared_error = 82.531\nsamples = 172\nvalue = 26.802"] ;
1 -> 39 ;
40 [label="TOV% <= 14.65\nsquared_error = 50.262\nsamples = 71\nvalue = 21.817"] ;
39 -> 40 ;
41 [label="ORB% <= 32.7\nsquared_error = 48.403\nsamples = 47\nvalue = 24.255"] ;
40 -> 41 ;
42 [label="DRB% <= 73.35\nsquared_error = 31.817\nsamples = 37\nvalue = 22.514"] ;
41 -> 42 ;
43 [label="3PAr_Norm <= 0.843\nsquared_error = 14.812\nsamples = 22\nvalue = 20.227"] ;
42 -> 43 ;
44 [label="squared_error = 11.84\nsamples = 10\nvalue = 18.6"] ;
43 -> 44 ;
45 [label="squared_error = 13.243\nsamples = 12\nvalue = 21.583"] ;
43 -> 45 ;
46 [label="squared_error = 37.849\nsamples = 15\nvalue = 25.867"] ;
42 -> 46 ;
47 [label="squared_error = 57.01\nsamples = 10\nvalue = 30.7"] ;
41 -> 47 ;
48 [label="TS% <= 0.509\nsquared_error = 19.457\nsamples = 24\nvalue = 17.042"] ;
40 -> 48 ;
49 [label="squared_error = 5.188\nsamples = 12\nvalue = 14.25"] ;
48 -> 49 ;
50 [label="squared_error = 18.139\nsamples = 12\nvalue = 19.833"] ;
48 -> 50 ;
51 [label="TOV% <= 13.85\nsquared_error = 75.46\nsamples = 101\nvalue = 30.307"] ;
39 -> 51 ;
52 [label="OeFG% <= 0.51\nsquared_error = 80.231\nsamples = 36\nvalue = 35.139"] ;
51 -> 52 ;
53 [label="Age <= 26.45\nsquared_error = 47.678\nsamples = 21\nvalue = 40.19"] ;
52 -> 53 ;
54 [label="squared_error = 34.36\nsamples = 10\nvalue = 36.8"] ;
53 -> 54 ;
55 [label="squared_error = 39.835\nsamples = 11\nvalue = 43.273"] ;
53 -> 55 ;
56 [label="squared_error = 40.062\nsamples = 15\nvalue = 28.067"] ;
52 -> 56 ;
57 [label="ORB% <= 33.95\nsquared_error = 52.725\nsamples = 65\nvalue = 27.631"] ;
51 -> 57 ;
58 [label="OeFG% <= 0.509\nsquared_error = 38.83\nsamples = 54\nvalue = 26.056"] ;
57 -> 58 ;
59 [label="TOV% <= 15.1\nsquared_error = 38.797\nsamples = 32\nvalue = 28.375"] ;
58 -> 59 ;
60 [label="squared_error = 38.726\nsamples = 19\nvalue = 30.895"] ;
59 -> 60 ;
61 [label="squared_error = 16.059\nsamples = 13\nvalue = 24.692"] ;
59 -> 61 ;
62 [label="eFG% <= 0.484\nsquared_error = 19.671\nsamples = 22\nvalue = 22.682"] ;
58 -> 62 ;
63 [label="squared_error = 20.446\nsamples = 11\nvalue = 20.091"] ;
62 -> 63 ;
64 [label="squared_error = 5.471\nsamples = 11\nvalue = 25.273"] ;
62 -> 64 ;
65 [label="squared_error = 48.959\nsamples = 11\nvalue = 35.364"] ;
57 -> 65 ;
66 [label="OeFG% <= 0.497\nsquared_error = 113.492\nsamples = 477\nvalue = 46.558"] ;
0 -> 66 [labeldistance=2.5, labelangle=-45, headlabel="False"] ;
67 [label="TS% <= 0.545\nsquared_error = 71.891\nsamples = 277\nvalue = 51.639"] ;
66 -> 67 ;
68 [label="OeFG% <= 0.479\nsquared_error = 66.159\nsamples = 112\nvalue = 47.036"] ;
67 -> 68 ;
69 [label="3PAr_Norm <= 1.14\nsquared_error = 30.261\nsamples = 53\nvalue = 52.755"] ;
68 -> 69 ;
70 [label="3PAr_Norm <= 0.756\nsquared_error = 22.183\nsamples = 35\nvalue = 54.4"] ;
69 -> 70 ;
71 [label="squared_error = 16.09\nsamples = 10\nvalue = 50.1"] ;
70 -> 71 ;
72 [label="OTOV% <= 14.25\nsquared_error = 14.266\nsamples = 25\nvalue = 56.12"] ;
70 -> 72 ;
73 [label="squared_error = 12.633\nsamples = 14\nvalue = 57.714"] ;
72 -> 73 ;
74 [label="squared_error = 8.992\nsamples = 11\nvalue = 54.091"] ;
72 -> 74 ;
75 [label="squared_error = 30.469\nsamples = 18\nvalue = 49.556"] ;
69 -> 75 ;
76 [label="TOV% <= 15.45\nsquared_error = 42.634\nsamples = 59\nvalue = 41.898"] ;
68 -> 76 ;
77 [label="ORB% <= 32.6\nsquared_error = 28.322\nsamples = 48\nvalue = 43.396"] ;
76 -> 77 ;
78 [label="Age <= 26.65\nsquared_error = 19.111\nsamples = 36\nvalue = 41.667"] ;
77 -> 78 ;
79 [label="squared_error = 14.367\nsamples = 13\nvalue = 38.692"] ;
78 -> 79 ;
80 [label="Pace <= 93.6\nsquared_error = 13.966\nsamples = 23\nvalue = 43.348"] ;
78 -> 80 ;
81 [label="squared_error = 11.053\nsamples = 13\nvalue = 44.846"] ;
80 -> 81 ;
82 [label="squared_error = 11.04\nsamples = 10\nvalue = 41.4"] ;
80 -> 82 ;
83 [label="squared_error = 20.076\nsamples = 12\nvalue = 48.583"] ;
77 -> 83 ;
84 [label="squared_error = 52.595\nsamples = 11\nvalue = 35.364"] ;
76 -> 84 ;
85 [label="Age <= 26.55\nsquared_error = 51.635\nsamples = 165\nvalue = 54.764"] ;
67 -> 85 ;
86 [label="OFT/FGA <= 0.23\nsquared_error = 63.911\nsamples = 34\nvalue = 49.029"] ;
85 -> 86 ;
87 [label="squared_error = 29.69\nsamples = 19\nvalue = 52.684"] ;
86 -> 87 ;
88 [label="squared_error = 68.907\nsamples = 15\nvalue = 44.4"] ;
86 -> 88 ;
89 [label="TS% <= 0.558\nsquared_error = 37.7\nsamples = 131\nvalue = 56.252"] ;
85 -> 89 ;
90 [label="OeFG% <= 0.479\nsquared_error = 39.303\nsamples = 69\nvalue = 54.174"] ;
89 -> 90 ;
91 [label="ORB% <= 34.45\nsquared_error = 31.319\nsamples = 37\nvalue = 56.757"] ;
90 -> 91 ;
92 [label="3PAr_Norm <= 1.02\nsquared_error = 21.698\nsamples = 27\nvalue = 54.926"] ;
91 -> 92 ;
93 [label="squared_error = 20.837\nsamples = 14\nvalue = 52.857"] ;
92 -> 93 ;
94 [label="squared_error = 13.053\nsamples = 13\nvalue = 57.154"] ;
92 -> 94 ;
95 [label="squared_error = 23.81\nsamples = 10\nvalue = 61.7"] ;
91 -> 95 ;
96 [label="OFT/FGA <= 0.244\nsquared_error = 31.902\nsamples = 32\nvalue = 51.188"] ;
90 -> 96 ;
97 [label="TS% <= 0.553\nsquared_error = 19.504\nsamples = 22\nvalue = 53.364"] ;
96 -> 97 ;
98 [label="squared_error = 19.24\nsamples = 10\nvalue = 51.6"] ;
97 -> 98 ;
99 [label="squared_error = 14.972\nsamples = 12\nvalue = 54.833"] ;
97 -> 99 ;
100 [label="squared_error = 25.84\nsamples = 10\nvalue = 46.4"] ;
96 -> 100 ;
101 [label="OeFG% <= 0.481\nsquared_error = 25.762\nsamples = 62\nvalue = 58.565"] ;
89 -> 101 ;
102 [label="DRB% <= 71.5\nsquared_error = 22.222\nsamples = 27\nvalue = 61.0"] ;
101 -> 102 ;
103 [label="squared_error = 12.996\nsamples = 15\nvalue = 58.933"] ;
102 -> 103 ;
104 [label="squared_error = 21.743\nsamples = 12\nvalue = 63.583"] ;
102 -> 104 ;
105 [label="FT/FGA <= 0.23\nsquared_error = 20.387\nsamples = 35\nvalue = 56.686"] ;
101 -> 105 ;
106 [label="squared_error = 14.828\nsamples = 13\nvalue = 58.692"] ;
105 -> 106 ;
107 [label="ORB% <= 29.05\nsquared_error = 19.886\nsamples = 22\nvalue = 55.5"] ;
105 -> 107 ;
108 [label="squared_error = 12.29\nsamples = 10\nvalue = 53.1"] ;
107 -> 108 ;
109 [label="squared_error = 17.417\nsamples = 12\nvalue = 57.5"] ;
107 -> 109 ;
110 [label="TS% <= 0.56\nsquared_error = 85.82\nsamples = 200\nvalue = 39.52"] ;
66 -> 110 ;
111 [label="OeFG% <= 0.512\nsquared_error = 70.538\nsamples = 158\nvalue = 37.177"] ;
110 -> 111 ;
112 [label="TS% <= 0.546\nsquared_error = 50.37\nsamples = 94\nvalue = 40.277"] ;
111 -> 112 ;
113 [label="TOV% <= 14.1\nsquared_error = 31.251\nsamples = 53\nvalue = 36.736"] ;
112 -> 113 ;
114 [label="OTOV% <= 13.5\nsquared_error = 24.08\nsamples = 25\nvalue = 40.0"] ;
113 -> 114 ;
115 [label="squared_error = 18.09\nsamples = 10\nvalue = 37.1"] ;
114 -> 115 ;
116 [label="squared_error = 18.729\nsamples = 15\nvalue = 41.933"] ;
114 -> 116 ;
117 [label="TS% <= 0.538\nsquared_error = 19.647\nsamples = 28\nvalue = 33.821"] ;
113 -> 117 ;
118 [label="squared_error = 14.658\nsamples = 14\nvalue = 31.643"] ;
117 -> 118 ;
119 [label="squared_error = 15.143\nsamples = 14\nvalue = 36.0"] ;
117 -> 119 ;
120 [label="Pace <= 93.15\nsquared_error = 37.93\nsamples = 41\nvalue = 44.854"] ;
112 -> 120 ;
121 [label="squared_error = 22.149\nsamples = 11\nvalue = 50.182"] ;
120 -> 121 ;
122 [label="OTOV% <= 14.05\nsquared_error = 29.49\nsamples = 30\nvalue = 42.9"] ;
120 -> 122 ;
123 [label="squared_error = 25.868\nsamples = 11\nvalue = 39.636"] ;
122 -> 123 ;
124 [label="squared_error = 21.85\nsamples = 19\nvalue = 44.789"] ;
122 -> 124 ;
125 [label="TOV% <= 13.25\nsquared_error = 65.328\nsamples = 64\nvalue = 32.625"] ;
111 -> 125 ;
126 [label="Age <= 26.05\nsquared_error = 52.979\nsamples = 30\nvalue = 36.567"] ;
125 -> 126 ;
127 [label="squared_error = 75.339\nsamples = 11\nvalue = 32.455"] ;
126 -> 127 ;
128 [label="squared_error = 24.576\nsamples = 19\nvalue = 38.947"] ;
126 -> 128 ;
129 [label="OeFG% <= 0.521\nsquared_error = 50.42\nsamples = 34\nvalue = 29.147"] ;
125 -> 129 ;
130 [label="squared_error = 51.062\nsamples = 16\nvalue = 31.75"] ;
129 -> 130 ;
131 [label="squared_error = 38.472\nsamples = 18\nvalue = 26.833"] ;
129 -> 131 ;
132 [label="TS% <= 0.572\nsquared_error = 44.984\nsamples = 42\nvalue = 48.333"] ;
110 -> 132 ;
133 [label="Pace <= 97.75\nsquared_error = 29.49\nsamples = 22\nvalue = 44.318"] ;
132 -> 133 ;
134 [label="squared_error = 14.833\nsamples = 12\nvalue = 46.0"] ;
133 -> 134 ;
135 [label="squared_error = 39.61\nsamples = 10\nvalue = 42.3"] ;
133 -> 135 ;
136 [label="TS% <= 0.579\nsquared_error = 24.787\nsamples = 20\nvalue = 52.75"] ;
132 -> 136 ;
137 [label="squared_error = 12.45\nsamples = 10\nvalue = 50.5"] ;
136 -> 137 ;
138 [label="squared_error = 27.0\nsamples = 10\nvalue = 55.0"] ;
136 -> 138 ;
}