digraph Tree {
node [shape=box, fontname="helvetica"] ;
edge [fontname="helvetica"] ;
0 [label="NRtg <= -0.65\nsquared_error = 164.693\nsamples = 957\nvalue = 40.3"] ;
1 [label="NRtg <= -4.85\nsquared_error = 57.431\nsamples = 405\nvalue = 28.363"] ;
0 -> 1 [labeldistance=2.5, labelangle=45, headlabel="True"] ;
2 [label="NRtg <= -8.15\nsquared_error = 23.174\nsamples = 164\nvalue = 21.549"] ;
1 -> 2 ;
3 [label="NRtg <= -10.3\nsquared_error = 11.224\nsamples = 50\nvalue = 16.66"] ;
2 -> 3 ;
4 [label="ORB% <= 25.1\nsquared_error = 12.076\nsamples = 12\nvalue = 13.583"] ;
3 -> 4 ;
5 [label="FTr <= 0.272\nsquared_error = 2.25\nsamples = 2\nvalue = 8.5"] ;
4 -> 5 ;
6 [label="squared_error = 0.0\nsamples = 1\nvalue = 10.0"] ;
5 -> 6 ;
7 [label="squared_error = 0.0\nsamples = 1\nvalue = 7.0"] ;
5 -> 7 ;
8 [label="TS% <= 0.509\nsquared_error = 7.84\nsamples = 10\nvalue = 14.6"] ;
4 -> 8 ;
9 [label="TOV% <= 15.2\nsquared_error = 1.734\nsamples = 8\nvalue = 13.375"] ;
8 -> 9 ;
10 [label="squared_error = 0.688\nsamples = 4\nvalue = 12.25"] ;
9 -> 10 ;
11 [label="squared_error = 0.25\nsamples = 4\nvalue = 14.5"] ;
9 -> 11 ;
12 [label="OFT/FGA <= 0.224\nsquared_error = 2.25\nsamples = 2\nvalue = 19.5"] ;
8 -> 12 ;
13 [label="squared_error = 0.0\nsamples = 1\nvalue = 18.0"] ;
12 -> 13 ;
14 [label="squared_error = 0.0\nsamples = 1\nvalue = 21.0"] ;
12 -> 14 ;
15 [label="eFG% <= 0.466\nsquared_error = 7.022\nsamples = 38\nvalue = 17.632"] ;
3 -> 15 ;
16 [label="Pace <= 90.0\nsquared_error = 9.371\nsamples = 16\nvalue = 16.438"] ;
15 -> 16 ;
17 [label="squared_error = 0.0\nsamples = 1\nvalue = 9.0"] ;
16 -> 17 ;
18 [label="FT/FGA <= 0.236\nsquared_error = 6.062\nsamples = 15\nvalue = 16.933"] ;
16 -> 18 ;
19 [label="squared_error = 4.556\nsamples = 13\nvalue = 17.462"] ;
18 -> 19 ;
20 [label="squared_error = 2.25\nsamples = 2\nvalue = 13.5"] ;
18 -> 20 ;
21 [label="DRB% <= 67.15\nsquared_error = 3.523\nsamples = 22\nvalue = 18.5"] ;
15 -> 21 ;
22 [label="OTOV% <= 15.7\nsquared_error = 1.438\nsamples = 8\nvalue = 19.75"] ;
21 -> 22 ;
23 [label="squared_error = 0.408\nsamples = 7\nvalue = 20.143"] ;
22 -> 23 ;
24 [label="squared_error = 0.0\nsamples = 1\nvalue = 17.0"] ;
22 -> 24 ;
25 [label="OTOV% <= 12.85\nsquared_error = 3.311\nsamples = 14\nvalue = 17.786"] ;
21 -> 25 ;
26 [label="squared_error = 1.429\nsamples = 7\nvalue = 19.0"] ;
25 -> 26 ;
27 [label="squared_error = 2.245\nsamples = 7\nvalue = 16.571"] ;
25 -> 27 ;
28 [label="NRtg <= -6.35\nsquared_error = 13.336\nsamples = 114\nvalue = 23.693"] ;
2 -> 28 ;
29 [label="FTr <= 0.363\nsquared_error = 11.705\nsamples = 58\nvalue = 21.862"] ;
28 -> 29 ;
30 [label="ORB% <= 28.85\nsquared_error = 10.076\nsamples = 57\nvalue = 21.684"] ;
29 -> 30 ;
31 [label="TS% <= 0.546\nsquared_error = 5.655\nsamples = 34\nvalue = 22.853"] ;
30 -> 31 ;
32 [label="squared_error = 5.103\nsamples = 31\nvalue = 23.161"] ;
31 -> 32 ;
33 [label="squared_error = 0.222\nsamples = 3\nvalue = 19.667"] ;
31 -> 33 ;
34 [label="Age <= 25.55\nsquared_error = 11.607\nsamples = 23\nvalue = 19.957"] ;
30 -> 34 ;
35 [label="squared_error = 1.84\nsamples = 5\nvalue = 16.4"] ;
34 -> 35 ;
36 [label="squared_error = 9.83\nsamples = 18\nvalue = 20.944"] ;
34 -> 36 ;
37 [label="squared_error = 0.0\nsamples = 1\nvalue = 32.0"] ;
29 -> 37 ;
38 [label="Age <= 26.45\nsquared_error = 7.956\nsamples = 56\nvalue = 25.589"] ;
28 -> 38 ;
39 [label="NRtg <= -5.55\nsquared_error = 6.998\nsamples = 44\nvalue = 25.045"] ;
38 -> 39 ;
40 [label="ORB% <= 29.0\nsquared_error = 5.3\nsamples = 22\nvalue = 24.136"] ;
39 -> 40 ;
41 [label="squared_error = 4.889\nsamples = 9\nvalue = 25.667"] ;
40 -> 41 ;
42 [label="squared_error = 2.84\nsamples = 13\nvalue = 23.077"] ;
40 -> 42 ;
43 [label="eFG% <= 0.471\nsquared_error = 7.043\nsamples = 22\nvalue = 25.955"] ;
39 -> 43 ;
44 [label="squared_error = 2.98\nsamples = 7\nvalue = 27.857"] ;
43 -> 44 ;
45 [label="squared_error = 6.462\nsamples = 15\nvalue = 25.067"] ;
43 -> 45 ;
46 [label="FT/FGA <= 0.253\nsquared_error = 6.41\nsamples = 12\nvalue = 27.583"] ;
38 -> 46 ;
47 [label="3PAr_Norm <= 0.767\nsquared_error = 2.21\nsamples = 10\nvalue = 26.7"] ;
46 -> 47 ;
48 [label="squared_error = 1.0\nsamples = 2\nvalue = 29.0"] ;
47 -> 48 ;
49 [label="squared_error = 0.859\nsamples = 8\nvalue = 26.125"] ;
47 -> 49 ;
50 [label="OFT/FGA <= 0.252\nsquared_error = 4.0\nsamples = 2\nvalue = 32.0"] ;
46 -> 50 ;
51 [label="squared_error = 0.0\nsamples = 1\nvalue = 30.0"] ;
50 -> 51 ;
52 [label="squared_error = 0.0\nsamples = 1\nvalue = 34.0"] ;
50 -> 52 ;
53 [label="NRtg <= -3.05\nsquared_error = 27.643\nsamples = 241\nvalue = 33.0"] ;
1 -> 53 ;
54 [label="OeFG% <= 0.53\nsquared_error = 14.702\nsamples = 101\nvalue = 29.347"] ;
53 -> 54 ;
55 [label="TS% <= 0.49\nsquared_error = 13.287\nsamples = 97\nvalue = 29.619"] ;
54 -> 55 ;
56 [label="squared_error = 0.0\nsamples = 1\nvalue = 16.0"] ;
55 -> 56 ;
57 [label="OFT/FGA <= 0.259\nsquared_error = 11.474\nsamples = 96\nvalue = 29.76"] ;
55 -> 57 ;
58 [label="NRtg <= -3.55\nsquared_error = 9.517\nsamples = 71\nvalue = 30.479"] ;
57 -> 58 ;
59 [label="squared_error = 9.46\nsamples = 46\nvalue = 29.587"] ;
58 -> 59 ;
60 [label="squared_error = 5.466\nsamples = 25\nvalue = 32.12"] ;
58 -> 60 ;
61 [label="OFT/FGA <= 0.287\nsquared_error = 11.402\nsamples = 25\nvalue = 27.72"] ;
57 -> 61 ;
62 [label="squared_error = 10.426\nsamples = 21\nvalue = 28.381"] ;
61 -> 62 ;
63 [label="squared_error = 2.188\nsamples = 4\nvalue = 24.25"] ;
61 -> 63 ;
64 [label="OeFG% <= 0.537\nsquared_error = 3.688\nsamples = 4\nvalue = 22.75"] ;
54 -> 64 ;
65 [label="Pace <= 99.3\nsquared_error = 0.25\nsamples = 2\nvalue = 24.5"] ;
64 -> 65 ;
66 [label="squared_error = 0.0\nsamples = 1\nvalue = 24.0"] ;
65 -> 66 ;
67 [label="squared_error = 0.0\nsamples = 1\nvalue = 25.0"] ;
65 -> 67 ;
68 [label="OTOV% <= 14.5\nsquared_error = 1.0\nsamples = 2\nvalue = 21.0"] ;
64 -> 68 ;
69 [label="squared_error = 0.0\nsamples = 1\nvalue = 20.0"] ;
68 -> 69 ;
70 [label="squared_error = 0.0\nsamples = 1\nvalue = 22.0"] ;
68 -> 70 ;
71 [label="ORtg <= 101.3\nsquared_error = 20.403\nsamples = 140\nvalue = 35.636"] ;
53 -> 71 ;
72 [label="DRB% <= 70.85\nsquared_error = 30.688\nsamples = 4\nvalue = 25.25"] ;
71 -> 72 ;
73 [label="TS% <= 0.514\nsquared_error = 4.0\nsamples = 2\nvalue = 20.0"] ;
72 -> 73 ;
74 [label="squared_error = 0.0\nsamples = 1\nvalue = 18.0"] ;
73 -> 74 ;
75 [label="squared_error = 0.0\nsamples = 1\nvalue = 22.0"] ;
73 -> 75 ;
76 [label="3PAr_Norm <= 0.934\nsquared_error = 2.25\nsamples = 2\nvalue = 30.5"] ;
72 -> 76 ;
77 [label="squared_error = 0.0\nsamples = 1\nvalue = 29.0"] ;
76 -> 77 ;
78 [label="squared_error = 0.0\nsamples = 1\nvalue = 32.0"] ;
76 -> 78 ;
79 [label="NRtg <= -1.85\nsquared_error = 16.835\nsamples = 136\nvalue = 35.941"] ;
71 -> 79 ;
80 [label="eFG% <= 0.461\nsquared_error = 16.732\nsamples = 52\nvalue = 34.135"] ;
79 -> 80 ;
81 [label="Pace <= 89.9\nsquared_error = 46.222\nsamples = 3\nvalue = 25.667"] ;
80 -> 81 ;
82 [label="squared_error = 4.0\nsamples = 2\nvalue = 21.0"] ;
81 -> 82 ;
83 [label="squared_error = 0.0\nsamples = 1\nvalue = 35.0"] ;
81 -> 83 ;
84 [label="Age <= 27.8\nsquared_error = 10.267\nsamples = 49\nvalue = 34.653"] ;
80 -> 84 ;
85 [label="squared_error = 8.971\nsamples = 44\nvalue = 34.273"] ;
84 -> 85 ;
86 [label="squared_error = 9.2\nsamples = 5\nvalue = 38.0"] ;
84 -> 86 ;
87 [label="OeFG% <= 0.495\nsquared_error = 13.627\nsamples = 84\nvalue = 37.06"] ;
79 -> 87 ;
88 [label="Age <= 31.0\nsquared_error = 12.932\nsamples = 42\nvalue = 38.143"] ;
87 -> 88 ;
89 [label="squared_error = 8.932\nsamples = 41\nvalue = 38.463"] ;
88 -> 89 ;
90 [label="squared_error = 0.0\nsamples = 1\nvalue = 25.0"] ;
88 -> 90 ;
91 [label="Age <= 27.85\nsquared_error = 11.976\nsamples = 42\nvalue = 35.976"] ;
87 -> 91 ;
92 [label="squared_error = 8.228\nsamples = 33\nvalue = 35.121"] ;
91 -> 92 ;
93 [label="squared_error = 13.21\nsamples = 9\nvalue = 39.111"] ;
91 -> 93 ;
94 [label="NRtg <= 3.25\nsquared_error = 62.142\nsamples = 552\nvalue = 49.058"] ;
0 -> 94 [labeldistance=2.5, labelangle=-45, headlabel="False"] ;
95 [label="NRtg <= 1.15\nsquared_error = 23.552\nsamples = 281\nvalue = 43.53"] ;
94 -> 95 ;
96 [label="TS% <= 0.509\nsquared_error = 14.862\nsamples = 139\nvalue = 41.194"] ;
95 -> 96 ;
97 [label="ORtg <= 102.1\nsquared_error = 50.667\nsamples = 3\nvalue = 31.0"] ;
96 -> 97 ;
98 [label="TOV% <= 13.8\nsquared_error = 1.0\nsamples = 2\nvalue = 26.0"] ;
97 -> 98 ;
99 [label="squared_error = 0.0\nsamples = 1\nvalue = 25.0"] ;
98 -> 99 ;
100 [label="squared_error = 0.0\nsamples = 1\nvalue = 27.0"] ;
98 -> 100 ;
101 [label="squared_error = 0.0\nsamples = 1\nvalue = 41.0"] ;
97 -> 101 ;
102 [label="NRtg <= 0.35\nsquared_error = 11.729\nsamples = 136\nvalue = 41.419"] ;
96 -> 102 ;
103 [label="FT/FGA <= 0.2\nsquared_error = 13.104\nsamples = 77\nvalue = 40.442"] ;
102 -> 103 ;
104 [label="Pace <= 93.9\nsquared_error = 11.76\nsamples = 10\nvalue = 37.2"] ;
103 -> 104 ;
105 [label="squared_error = 1.556\nsamples = 3\nvalue = 32.667"] ;
104 -> 105 ;
106 [label="squared_error = 3.551\nsamples = 7\nvalue = 39.143"] ;
104 -> 106 ;
107 [label="OeFG% <= 0.465\nsquared_error = 11.502\nsamples = 67\nvalue = 40.925"] ;
103 -> 107 ;
108 [label="squared_error = 56.25\nsamples = 2\nvalue = 33.5"] ;
107 -> 108 ;
109 [label="squared_error = 8.376\nsamples = 65\nvalue = 41.154"] ;
107 -> 109 ;
110 [label="TS% <= 0.572\nsquared_error = 7.059\nsamples = 59\nvalue = 42.695"] ;
102 -> 110 ;
111 [label="Age <= 30.6\nsquared_error = 5.706\nsamples = 56\nvalue = 42.411"] ;
110 -> 111 ;
112 [label="squared_error = 5.049\nsamples = 55\nvalue = 42.527"] ;
111 -> 112 ;
113 [label="squared_error = 0.0\nsamples = 1\nvalue = 36.0"] ;
111 -> 113 ;
114 [label="Pace <= 99.85\nsquared_error = 2.667\nsamples = 3\nvalue = 48.0"] ;
110 -> 114 ;
115 [label="squared_error = 0.0\nsamples = 1\nvalue = 50.0"] ;
114 -> 115 ;
116 [label="squared_error = 1.0\nsamples = 2\nvalue = 47.0"] ;
114 -> 116 ;
117 [label="DRtg <= 97.8\nsquared_error = 21.488\nsamples = 142\nvalue = 45.817"] ;
95 -> 117 ;
118 [label="OeFG% <= 0.463\nsquared_error = 6.25\nsamples = 2\nvalue = 30.5"] ;
117 -> 118 ;
119 [label="squared_error = 0.0\nsamples = 1\nvalue = 28.0"] ;
118 -> 119 ;
120 [label="squared_error = 0.0\nsamples = 1\nvalue = 33.0"] ;
118 -> 120 ;
121 [label="OFT/FGA <= 0.27\nsquared_error = 18.306\nsamples = 140\nvalue = 46.036"] ;
117 -> 121 ;
122 [label="FT/FGA <= 0.281\nsquared_error = 16.111\nsamples = 127\nvalue = 46.386"] ;
121 -> 122 ;
123 [label="DRB% <= 70.4\nsquared_error = 15.761\nsamples = 120\nvalue = 46.15"] ;
122 -> 123 ;
124 [label="squared_error = 22.441\nsamples = 43\nvalue = 45.023"] ;
123 -> 124 ;
125 [label="squared_error = 10.925\nsamples = 77\nvalue = 46.779"] ;
123 -> 125 ;
126 [label="ORB% <= 34.35\nsquared_error = 4.816\nsamples = 7\nvalue = 50.429"] ;
122 -> 126 ;
127 [label="squared_error = 0.889\nsamples = 3\nvalue = 48.333"] ;
126 -> 127 ;
128 [label="squared_error = 2.0\nsamples = 4\nvalue = 52.0"] ;
126 -> 128 ;
129 [label="Pace <= 87.6\nsquared_error = 26.852\nsamples = 13\nvalue = 42.615"] ;
121 -> 129 ;
130 [label="ORB% <= 29.2\nsquared_error = 49.0\nsamples = 2\nvalue = 35.0"] ;
129 -> 130 ;
131 [label="squared_error = 0.0\nsamples = 1\nvalue = 28.0"] ;
130 -> 131 ;
132 [label="squared_error = 0.0\nsamples = 1\nvalue = 42.0"] ;
130 -> 132 ;
133 [label="OTOV% <= 16.9\nsquared_error = 10.364\nsamples = 11\nvalue = 44.0"] ;
129 -> 133 ;
134 [label="squared_error = 4.36\nsamples = 10\nvalue = 43.2"] ;
133 -> 134 ;
135 [label="squared_error = 0.0\nsamples = 1\nvalue = 52.0"] ;
133 -> 135 ;
136 [label="NRtg <= 5.85\nsquared_error = 37.62\nsamples = 271\nvalue = 54.79"] ;
94 -> 136 ;
137 [label="Pace <= 86.8\nsquared_error = 24.778\nsamples = 149\nvalue = 51.913"] ;
136 -> 137 ;
138 [label="OeFG% <= 0.469\nsquared_error = 51.2\nsamples = 5\nvalue = 35.0"] ;
137 -> 138 ;
139 [label="NRtg <= 4.1\nsquared_error = 2.75\nsamples = 4\nvalue = 31.5"] ;
138 -> 139 ;
140 [label="ORB% <= 31.8\nsquared_error = 1.0\nsamples = 2\nvalue = 30.0"] ;
139 -> 140 ;
141 [label="squared_error = 0.0\nsamples = 1\nvalue = 29.0"] ;
140 -> 141 ;
142 [label="squared_error = 0.0\nsamples = 1\nvalue = 31.0"] ;
140 -> 142 ;
143 [label="squared_error = 0.0\nsamples = 2\nvalue = 33.0"] ;
139 -> 143 ;
144 [label="squared_error = 0.0\nsamples = 1\nvalue = 49.0"] ;
138 -> 144 ;
145 [label="NRtg <= 4.55\nsquared_error = 13.583\nsamples = 144\nvalue = 52.5"] ;
137 -> 145 ;
146 [label="3PAr_Norm <= 1.109\nsquared_error = 12.437\nsamples = 85\nvalue = 51.341"] ;
145 -> 146 ;
147 [label="FTr <= 0.339\nsquared_error = 13.304\nsamples = 57\nvalue = 50.684"] ;
146 -> 147 ;
148 [label="squared_error = 11.521\nsamples = 36\nvalue = 49.583"] ;
147 -> 148 ;
149 [label="squared_error = 10.721\nsamples = 21\nvalue = 52.571"] ;
147 -> 149 ;
150 [label="Age <= 24.85\nsquared_error = 8.004\nsamples = 28\nvalue = 52.679"] ;
146 -> 150 ;
151 [label="squared_error = 0.0\nsamples = 1\nvalue = 45.0"] ;
150 -> 151 ;
152 [label="squared_error = 6.036\nsamples = 27\nvalue = 52.963"] ;
150 -> 152 ;
153 [label="DRtg <= 111.2\nsquared_error = 10.514\nsamples = 59\nvalue = 54.169"] ;
145 -> 153 ;
154 [label="OFT/FGA <= 0.204\nsquared_error = 8.507\nsamples = 58\nvalue = 54.362"] ;
153 -> 154 ;
155 [label="squared_error = 2.727\nsamples = 20\nvalue = 56.35"] ;
154 -> 155 ;
156 [label="squared_error = 8.374\nsamples = 38\nvalue = 53.316"] ;
154 -> 156 ;
157 [label="squared_error = 0.0\nsamples = 1\nvalue = 43.0"] ;
153 -> 157 ;
158 [label="DRtg <= 98.7\nsquared_error = 30.851\nsamples = 122\nvalue = 58.303"] ;
136 -> 158 ;
159 [label="3PAr_Norm <= 0.816\nsquared_error = 91.5\nsamples = 8\nvalue = 48.5"] ;
158 -> 159 ;
160 [label="squared_error = 0.0\nsamples = 2\nvalue = 37.0"] ;
159 -> 160 ;
161 [label="NRtg <= 7.3\nsquared_error = 63.222\nsamples = 6\nvalue = 52.333"] ;
159 -> 161 ;
162 [label="NRtg <= 6.85\nsquared_error = 76.222\nsamples = 3\nvalue = 47.333"] ;
161 -> 162 ;
163 [label="squared_error = 0.25\nsamples = 2\nvalue = 53.5"] ;
162 -> 163 ;
164 [label="squared_error = 0.0\nsamples = 1\nvalue = 35.0"] ;
162 -> 164 ;
165 [label="TOV% <= 13.85\nsquared_error = 0.222\nsamples = 3\nvalue = 57.333"] ;
161 -> 165 ;
166 [label="squared_error = 0.0\nsamples = 1\nvalue = 58.0"] ;
165 -> 166 ;
167 [label="squared_error = 0.0\nsamples = 2\nvalue = 57.0"] ;
165 -> 167 ;
168 [label="NRtg <= 7.8\nsquared_error = 19.377\nsamples = 114\nvalue = 58.991"] ;
158 -> 168 ;
169 [label="OeFG% <= 0.498\nsquared_error = 14.644\nsamples = 80\nvalue = 57.575"] ;
168 -> 169 ;
170 [label="Age <= 25.15\nsquared_error = 12.972\nsamples = 73\nvalue = 57.986"] ;
169 -> 170 ;
171 [label="squared_error = 0.0\nsamples = 1\nvalue = 47.0"] ;
170 -> 171 ;
172 [label="squared_error = 11.453\nsamples = 72\nvalue = 58.139"] ;
170 -> 172 ;
173 [label="DRB% <= 77.25\nsquared_error = 11.918\nsamples = 7\nvalue = 53.286"] ;
169 -> 173 ;
174 [label="squared_error = 3.76\nsamples = 5\nvalue = 55.2"] ;
173 -> 174 ;
175 [label="squared_error = 0.25\nsamples = 2\nvalue = 48.5"] ;
173 -> 175 ;
176 [label="NRtg <= 9.9\nsquared_error = 14.689\nsamples = 34\nvalue = 62.324"] ;
168 -> 176 ;
177 [label="TS% <= 0.588\nsquared_error = 8.596\nsamples = 28\nvalue = 61.107"] ;
176 -> 177 ;
178 [label="squared_error = 7.639\nsamples = 26\nvalue = 60.769"] ;
177 -> 178 ;
179 [label="squared_error = 0.25\nsamples = 2\nvalue = 65.5"] ;
177 -> 179 ;
180 [label="OTOV% <= 15.45\nsquared_error = 4.0\nsamples = 6\nvalue = 68.0"] ;
176 -> 180 ;
181 [label="squared_error = 0.96\nsamples = 5\nvalue = 67.2"] ;
180 -> 181 ;
182 [label="squared_error = 0.0\nsamples = 1\nvalue = 72.0"] ;
180 -> 182 ;
}